FANN_FLO_1.1
3 0.700000 1.000000 0 5 5 5.00000000000000000000e-01 5.00000000000000000000e-01
11 4 5 
0 0 0 0 0 0 0 0 0 0 0 
11 11 11 0 
4 4 4 4 0 
(0 -6.78096115589141845703e-02) (1 -7.61286988854408264160e-02) (2 -9.50028523802757263184e-02) (3 8.71179997920989990234e-02) (4 -7.79168261215090751648e-03) (5 4.51926253736019134521e-02) (6 -4.75598610937595367432e-02) (7 6.13946579396724700928e-02) (8 6.00344724953174591064e-02) (9 -6.08561851549893617630e-04) (10 -2.80980654060840606689e-02) (0 -4.41862829029560089111e-02) (1 -3.88516187667846679688e-02) (2 2.08673439919948577881e-02) (3 -8.25438871979713439941e-02) (4 8.49286988377571105957e-02) (5 -3.38223087601363658905e-03) (6 -4.51543591916561126709e-02) (7 9.06776711344718933105e-02) (8 1.95779874920845031738e-02) (9 4.72273230552673339844e-02) (10 -5.03708645701408386230e-02) (0 1.68513823300600051880e-02) (1 2.11962573230266571045e-02) (2 4.55087348818778991699e-02) (3 6.52848184108734130859e-02) (4 4.19599786400794982910e-02) (5 2.13480275124311447144e-02) (6 -3.70377954095602035522e-03) (7 -4.94204275310039520264e-02) (8 -9.09850839525461196899e-03) (9 8.13748091459274291992e-02) (10 6.64015188813209533691e-02) (11 1.02978348731994628906e-02) (12 7.57162719964981079102e-02) (13 -3.66010926663875579834e-02) (14 4.54438775777816772461e-02) (11 -2.47327592223882675171e-02) (12 -8.34836587309837341309e-02) (13 9.00993123650550842285e-02) (14 9.91725847125053405762e-02) (11 -6.41100574284791946411e-03) (12 5.02256453037261962891e-02) (13 -5.75484633445739746094e-02) (14 -1.70403178781270980835e-02) (11 3.37494094856083393097e-03) (12 -7.73658826947212219238e-02) (13 -8.84434953331947326660e-02) (14 -6.97758868336677551270e-02) 
